tree
version=v4
num_class=1
num_tree_per_iteration=1
label_index=0
max_feature_idx=12
objective=lambdarank
feature_names=dist_to_nearest_prior_km nearest_competitor_km avg_nearest_5_competitors_km median_income resident_pop workers_in_tract workers_from_tract daytime_pop hwy_aadt dist_to_highway_meters dist_to_nearest_dc_miles dist_to_freeway_ramp_meters trade_area_population
feature_infos=[0:216.57900000000001] [0.001:661.16099999999994] [0.035999999999999997:662.89999999999998] [0:245521] [3:38223] [151:106997] [129:6614] [870:109405] [660:351700] [55.440782331216127:10719.982090874715] [0.97443373166662584:256.30943590687554] [12.072170441392531:69677.028141805393] [24:38907]
tree_sizes=1808 1599 1704 1490 1806

Tree=0
num_leaves=16
num_cat=0
split_feature=11 7 1 4 7 11 1 12 11 5 6 6 12 11 2
split_gain=24.7368 8.20569 5.94064 6.49713 5.6346 7.07757 5.42661 8.39582 4.38377 4.28552 4.14198 9.91099 4.65739 2.70315 0.0487674
threshold=301.27643046466898 5092.0000000000009 0.15450000000000003 3503.5000000000005 4769.5000000000009 167.34227008285421 1.0415000000000003 4764.0000000000009 265.15830422307437 9227.5000000000018 1841.0000000000002 1918.0000000000002 2759.5000000000005 84.64104333613669 3.5675000000000003
decision_type=2 2 2 2 2 2 2 2 2 2 2 2 2 2 2
left_child=2 10 3 14 5 -4 7 -3 -5 -8 12 -12 -2 -6 -1
right_child=1 6 4 8 13 -7 9 -9 -10 -11 11 -13 -14 -15 -16
leaf_value=0.080330905183154278 -0.0043514933492618596 -0.044066843827227239 0.035023769788324791 -0.066530330627988549 0.090769591353054013 -0.099999999999999936 -0.082294330378117758 0.029553967020026439 0.052770811382448914 0.070738364099767526 0.055814635031537753 -0.058043122313659296 -0.099999999999999992 0.048022314034472893 0.099999999999999839
leaf_weight=0.6434112768620277 1.629275591578337 5.6377293812111082 4.121335192583504 3.3343050125986338 5.4885767605155733 1.2694594385102389 3.1514788409695025 12.368828684324397 1.0012375004589555 0.53517077537253488 2.5315579744055849 7.8011047751642764 5.8152412995696068 11.337363220984114 0.61766640841960907
leaf_count=10 20 64 42 48 32 25 63 117 6 11 18 119 110 101 2
internal_value=9.24627e-10 -0.0254494 0.0361156 -0.00992453 0.0477136 0.00322749 -0.00481168 0.0065038 -0.0389793 -0.0600794 -0.0506333 -0.0301474 -0.0790668 0.0619664 0.0899647
internal_weight=67.2837 39.4704 27.8134 5.59662 22.2167 5.39079 21.6932 18.0066 4.33554 3.68665 17.7772 10.3327 7.44452 16.8259 1.26108
internal_count=788 522 266 66 200 67 255 181 54 74 267 137 130 133 12
is_linear=0
shrinkage=0.05


Tree=1
num_leaves=14
num_cat=0
split_feature=11 2 2 1 8 2 1 2 10 1 6 2 5
split_gain=40.3887 21.1391 20.8397 17.4214 16.6167 13.5336 14.0134 0.825878 0.0114331 0.017568 0.00766698 0.00230803 0.000378133
threshold=620.22200285261999 26.306000000000004 4.5470000000000006 0.061500000000000006 86100.000000000015 10.021000000000003 4.2875000000000005 21.195000000000004 53.244332456736416 8.7645000000000017 1899.5000000000002 47.155500000000011 902.00000000000011
decision_type=2 2 2 2 2 2 2 2 2 2 2 2 2
left_child=1 5 3 10 -5 6 -1 -7 12 -10 -2 -3 -4
right_child=2 11 8 4 -6 7 -8 -9 9 -11 -12 -13 -14
leaf_value=0.019108227272524383 -0.09595181298779204 -0.099737527920721603 -0.092140319426704989 0.008283607743293446 -0.034178769772486323 0.064750028588099265 -0.046279595768721711 0.098154400615541981 -0.094478213865038477 -0.099605721123954161 -0.099882905570421135 -0.097078985999275114 -0.093395408397757576
leaf_weight=141.99252355378121 1.7303284481167782 2.7590518742799754 1.3045888245105728 49.202238190919161 43.32919409731403 3.2303307168185702 8.6956971213221532 4.331291675567627 3.8158512245863676 2.9712836854159832 4.3799909614026546 1.1594599932432172 1.1113338097929952
leaf_count=352 9 8 7 140 160 9 19 5 36 12 14 7 10
internal_value=-2.13331e-10 0.0157697 -0.0237133 -0.0169997 -0.0116 0.0186104 0.0153349 0.083884 -0.0956715 -0.0967229 -0.0987697 -0.0989509 -0.0927177
internal_weight=270.013 162.168 107.845 98.6418 92.5314 158.25 150.688 7.56162 9.20306 6.78713 6.11032 3.91851 2.41592
internal_count=788 400 388 323 300 385 371 14 65 48 23 15 17
is_linear=0
shrinkage=0.05


Tree=2
num_leaves=15
num_cat=0
split_feature=7 6 8 8 3 3 5 3 12 3 2 10 7 5
split_gain=20.8878 19.49 15.4639 21.594 19.3869 14.7128 14.3539 13.2407 10.7363 9.71585 0.0148138 0.01441 0.0129962 0.00851346
threshold=5092.0000000000009 2585.0000000000005 166000.00000000003 181300.00000000003 177183.00000000003 59679.500000000007 2233.0000000000005 112900.00000000001 2849.0000000000005 157202.50000000003 43.992000000000012 56.309852239361753 27396.500000000004 2052.5000000000005
decision_type=2 2 2 2 2 2 2 2 2 2 2 2 2 2
left_child=1 5 4 12 7 8 -5 -2 -1 -7 13 -6 -4 -3
right_child=2 10 3 6 11 9 -8 -9 -10 -11 -12 -13 -14 -15
leaf_value=0.0074835255741040668 0.014378544888247339 -0.094959508725359631 -0.098804495313920992 -0.096140312225484095 -0.093708880418814366 -0.00062167640709460395 0.0097442964694831186 0.053700177832605292 -0.095128952858738791 -0.098782707042922413 -0.089086797919754768 -0.10066596932834877 -0.093141555163923445 -0.099095409390244457
leaf_weight=3.6917884498834601 73.996876379474998 5.0084276015404603 5.1240941286087027 3.4897192325443021 1.1529288440942758 77.137788965366781 38.644344710744917 30.123938616365194 8.2359907384961826 2.6059853974729768 0.88061501085758198 2.1000372618436813 1.2628423422574995 1.6555277928709982
leaf_count=10 188 28 19 17 6 253 113 59 55 17 6 5 7 5
internal_value=4.51769e-10 -0.017934 0.0114137 -0.0120123 0.0219997 -0.0115765 0.000974491 0.025755 -0.0633692 -0.00382953 -0.0951816 -0.0982002 -0.0976848 -0.095987
internal_weight=255.111 99.2161 155.895 48.521 107.374 91.6716 42.1341 104.121 11.9278 79.7438 7.54457 3.25297 6.38694 6.66396
internal_count=788 374 414 156 258 335 130 247 65 270 39 11 26 33
is_linear=0
shrinkage=0.05


Tree=3
num_leaves=13
num_cat=0
split_feature=0 0 10 1 11 0 0 5 1 11 12 0
split_gain=491.339 23.7844 16.8513 19.2896 10.7256 11.1937 22.104 10.4036 18.8813 6.32881 4.13666 0.66148
threshold=2.1885000000000003 4.0075000000000012 17.369976621775916 0.53850000000000009 45.075402999545489 0.41650000000000004 0.44900000000000007 1113.0000000000002 4.0460000000000003 3982.6921705460177 8488.0000000000018 3.0240000000000005
decision_type=10 10 2 2 2 10 10 2 2 2 2 10
left_child=4 2 11 -4 -1 10 -7 8 -3 -9 -6 -2
right_child=1 7 3 -5 5 6 -8 9 -10 -11 -12 -13
leaf_value=0.075593160309156249 0.065529683027127292 0.060970612072717256 0.035068241384400831 -0.058698783026520207 -0.096654888916159587 0.059222946673560518 -0.07190380106097248 0.087741723528132073 -0.094198712090114739 0.035472061339831044 -0.043508747400489593 0.095636854703348539
leaf_weight=1.0994453839957703 2.5038087703287584 15.723885234445335 20.047715854831043 7.5505902618169776 63.982240447774529 3.5374442972242823 35.135673456126824 74.646810257807374 2.2397179305553427 6.2781855072826138 3.8836300373077384 6.7232503890991211
leaf_count=3 7 54 38 30 247 6 171 178 10 21 10 13
internal_value=2.34742e-10 0.0632724 0.0289717 0.00941462 -0.0797759 -0.0813792 -0.0599096 0.0760457 0.041624 0.0836866 -0.0936136 0.0874671
internal_weight=243.352 135.714 36.8254 27.5983 107.638 106.539 38.6731 98.8886 17.9636 80.925 67.8659 9.22706
internal_count=788 351 88 68 437 434 177 263 64 199 257 20
is_linear=0
shrinkage=0.05


Tree=4
num_leaves=16
num_cat=0
split_feature=0 0 2 2 9 5 9 0 2 5 9 6 7 12 5
split_gain=252.104 18.0689 20.2556 17.8211 14.4278 14.0177 11.5275 14.7395 10.4626 6.58801 4.67709 5.64728 0.0692413 0.0233344 0.0176593
threshold=2.3410000000000006 4.1320000000000006 2.0130000000000003 0.29450000000000004 1713.8395610055186 3166.0000000000005 648.66974493734961 0.12650000000000003 0.47150000000000003 1113.0000000000002 5492.4727460067397 1918.0000000000002 4894.5000000000009 5113.5000000000009 1646.5000000000002
decision_type=10 10 2 2 2 2 2 10 2 2 2 2 2 2 2
left_child=6 2 3 -2 9 -6 7 14 -9 -3 12 -12 -8 -4 -1
right_child=1 4 13 -5 5 -7 10 8 -10 -11 11 -13 -14 -15 -16
leaf_value=-0.08669427152909033 -0.097628605698485638 0.033163393733436561 -0.092214250301208542 0.043804892198232206 -0.040535423389263185 0.060754511283166349 -0.086483094979876107 0.030151770602732181 -0.043378242488492716 0.076050596246931348 0.069446522636814209 -0.088510118588128683 -0.090720485731551642 -0.083272109220708379 -0.090510769299692179
leaf_weight=4.4689523074775925 2.4488553255796495 10.561624020338057 2.9980067610740657 24.613053828477859 6.4130457490682584 7.3082990199327469 16.432061966508627 6.3712220788002041 20.100949645042419 58.844682570546865 1.0551622062921517 1.220222871750593 23.326147323474288 0.96417609602212895 9.4196804240345937
leaf_count=28 7 41 16 52 37 19 110 16 94 160 2 8 137 10 51
internal_value=-1.35519e-10 0.04811 0.0155475 0.0310065 0.0602626 0.0134139 -0.066653 -0.0475673 -0.0256813 0.0695244 -0.0849792 -0.015261 -0.0889692 -0.0900382 -0.0892827
internal_weight=196.546 114.152 31.0241 27.0619 83.1277 13.7213 82.3944 40.3608 26.4722 69.4063 42.0336 2.27539 39.7582 3.96218 13.8886
internal_count=788 342 85 59 257 56 446 189 110 201 257 10 247 26 79
is_linear=0
shrinkage=0.05


end of trees

feature_importances:
avg_nearest_5_competitors_km=10
dist_to_nearest_prior_km=8
workers_in_tract=8
nearest_competitor_km=7
dist_to_freeway_ramp_meters=7
workers_from_tract=5
daytime_pop=5
trade_area_population=5
median_income=4
hwy_aadt=3
dist_to_highway_meters=3
dist_to_nearest_dc_miles=3
resident_pop=1

parameters:
[boosting: gbdt]
[objective: lambdarank]
[metric: ndcg]
[tree_learner: serial]
[device_type: cpu]
[data_sample_strategy: bagging]
[data: ]
[valid: ]
[num_iterations: 300]
[learning_rate: 0.05]
[num_leaves: 31]
[num_threads: 10]
[seed: 42]
[deterministic: 0]
[force_col_wise: 0]
[force_row_wise: 0]
[histogram_pool_size: -1]
[max_depth: 4]
[min_data_in_leaf: 5]
[min_sum_hessian_in_leaf: 0.001]
[bagging_fraction: 0.8]
[pos_bagging_fraction: 1]
[neg_bagging_fraction: 1]
[bagging_freq: 0]
[bagging_seed: 400]
[bagging_by_query: 0]
[feature_fraction: 0.8]
[feature_fraction_bynode: 1]
[feature_fraction_seed: 30056]
[extra_trees: 0]
[extra_seed: 12879]
[early_stopping_round: 0]
[early_stopping_min_delta: 0]
[first_metric_only: 0]
[max_delta_step: 0]
[lambda_l1: 0]
[lambda_l2: 0]
[linear_lambda: 0]
[min_gain_to_split: 0]
[drop_rate: 0.1]
[max_drop: 50]
[skip_drop: 0.5]
[xgboost_dart_mode: 0]
[uniform_drop: 0]
[drop_seed: 17869]
[top_rate: 0.2]
[other_rate: 0.1]
[min_data_per_group: 100]
[max_cat_threshold: 32]
[cat_l2: 10]
[cat_smooth: 10]
[max_cat_to_onehot: 4]
[top_k: 20]
[monotone_constraints: ]
[monotone_constraints_method: basic]
[monotone_penalty: 0]
[feature_contri: ]
[forcedsplits_filename: ]
[refit_decay_rate: 0.9]
[cegb_tradeoff: 1]
[cegb_penalty_split: 0]
[cegb_penalty_feature_lazy: ]
[cegb_penalty_feature_coupled: ]
[path_smooth: 0]
[interaction_constraints: ]
[verbosity: 1]
[saved_feature_importance_type: 0]
[use_quantized_grad: 0]
[num_grad_quant_bins: 4]
[quant_train_renew_leaf: 0]
[stochastic_rounding: 1]
[linear_tree: 0]
[max_bin: 255]
[max_bin_by_feature: ]
[min_data_in_bin: 3]
[bin_construct_sample_cnt: 200000]
[data_random_seed: 175]
[is_enable_sparse: 1]
[enable_bundle: 1]
[use_missing: 1]
[zero_as_missing: 0]
[feature_pre_filter: 1]
[pre_partition: 0]
[two_round: 0]
[header: 0]
[label_column: ]
[weight_column: ]
[group_column: ]
[ignore_column: ]
[categorical_feature: ]
[forcedbins_filename: ]
[precise_float_parser: 0]
[parser_config_file: ]
[objective_seed: 16083]
[num_class: 1]
[is_unbalance: 0]
[scale_pos_weight: 1]
[sigmoid: 1]
[boost_from_average: 1]
[reg_sqrt: 0]
[alpha: 0.9]
[fair_c: 1]
[poisson_max_delta_step: 0.7]
[tweedie_variance_power: 1.5]
[lambdarank_truncation_level: 30]
[lambdarank_norm: 1]
[label_gain: ]
[lambdarank_position_bias_regularization: 0]
[eval_at: 1,2,3,4,5]
[multi_error_top_k: 1]
[auc_mu_weights: ]
[num_machines: 1]
[local_listen_port: 12400]
[time_out: 120]
[machine_list_filename: ]
[machines: ]
[gpu_platform_id: -1]
[gpu_device_id: -1]
[gpu_use_dp: 0]
[num_gpu: 1]

end of parameters

pandas_categorical:[]
